{"targets":[{"isStage":true,"name":"Stage","variables":{"o":["score",120500],"f":["combo","1"],"O":["chart","0"],"u":["DEVmode",0],"a":["menu","end"],"s":["Graphics","2"],"l":["globalcount","null"],"e":["notes_hit",657],"k":["notes_missed",171],"w":["Scroll",0],"C":["selected song","One, Two, Buckle My Shoe"],"m":["gamemode","gravity"],"b":["Xres",480],"d":["Yres",360],"G":["Audio Delay",0]},"lists":{"g":["active-shadows1",[173.95401691251627,44.534190917235,180,12,0,-1.7395401691251626]],"h":["active-shadows2",[165.85063323858213,215.51283272739383,180,96.3401917459099,135,0]],"j":["chartdata",["93","99.1301764822787","94","99.1301764822787","110","-96.581944655178","111","-96.581944655178","112","-96.581944655178","126","-15.945395900922847","127","-15.945395900922847","130","-15.945395900922847","131","-15.945395900922847","133","-15.945395900922847","134","-15.945395900922847","139","-15.945395900922847","140","-15.945395900922847","144","-15.945395900922847","153","12.20046872738078","154","19.35899417569472","157","19.35899417569472","158","19.35899417569472","168","93.41658819177134","169","93.41658819177134","185","-160.9743939624313","186","-158.19859051364818","187","-158.19859051364818","202","127.14668669802178","203","127.14668669802178","205","127.14668669802178","206","127.14668669802178","208","127.14668669802178","218","127.14668669802178","219","127.14668669802178","221","127.14668669802178","222","127.14668669802178","223","127.14668669802178","230","-129.9868862449642","231","-129.9868862449642","247","-73.53998518795996","248","-72.34987578006988","249","-72.34987578006988","265","66.03751102542182","266","66.03751102542182","273","130.2363583092738","274","132.87890360333856","282","-144.63753811293097","283","-144.63753811293097","370","98.7461622625552","371","98.7461622625552","379","16.927513064147035","380","15.78075330951539","388","95.1944289077348","389","95.1944289077348","396","174.14398641457103","403","-134.11859600341785","404","-132.35745470593528","410","155.09523119190482","411","155.09523119190482","417","-126.32682595212023","418","-126.32682595212023","426","130.8150838748816","435","-115.0168934781","436","-115.0168934781","444","95.71059313749964","445","95.71059313749964","454","-84.4278021960362","462","78.43986920578223","463","79.15969454566944","470","-63.434948822922024","471","-63.434948822922024","480","78.3106308245608","488","-91.68468431789626","489","-91.68468431789626","497","118.393019421383","498","117.14968169778317","505","-126.1932073055647","506","-126.1932073055647","514","125.36246188706906","515","125.36246188706906","523","-106.58733855692742","524","-106.58733855692742","533","90","534","90","541","-77.66091272167381","542","-78.02386755579664","550","14.036243467926468","551","15.642246457208728","560","88.31531568210372","567","-95.07960786001456","568","-95.07960786001456","576","-155.7722546820458","577","-155.7722546820458","584","124.11447294534126","585","124.11447294534126","593","-113.96248897457818","594","-113.96248897457818","602","117.75854060106002","603","117.75854060106002","610","-116.56505117707798","611","-116.56505117707798","620","67.75097634278762","621","60.945395900922854","627","-76.18497465873838","628","-76.39945748334125","636","-25.201123645475093","637","-23.96248897457818","643","24.443954780416533","644","26.56505117707799","650","80.21759296819272","651","80.21759296819272","660","124.38034472384487","661","124.38034472384487","668","-112.71441235316723","669","-112.71441235316723","677","116.56505117707799","685","-93.17983011986422","686","-93.17983011986422","695","-12.528807709151522","704","87.51044707800085","705","87.51044707800085","714","-91.8476102659946","722","98.7461622625552","732","-123.69006752597977","733","-123.69006752597977","742","112.98871680208063","750","-95.19442890773485","751","-95.19442890773485","759","-27.552811576717815","768","104.93141717813755","769","104.03624346792648","776","-97.30575953331083","777","-97.30575953331083","778","-97.30575953331083","785","117.25532837494308","786","117.25532837494308","795","-131.8778695378843","803","131.18592516570965","804","129.17365797044422","813","-135","814","-135","821","178.0908475670036","822","178.0908475670036","830","-94.63546342690267","831","-94.63546342690267","840","90","849","-30.579226872489016","850","-29.981639368849343","857","47.86240522611174","858","49.18491612511841","867","-97.69605172201659","868","-97.69605172201659","876","112.47943439710312","877","112.47943439710312","886","-129.17365797044422","887","-129.17365797044422","894","126.15818543980834","895","124.15969454566942","902","-126.86989764584402","903","-120.96375653207352","911","122.00538320808349","912","122.00538320808349","921","-126.86989764584402","922","-126.86989764584402","930","106.50436138175502","931","106.50436138175502","938","-107.3540246362613","939","-107.3540246362613","947","-69.7174409110834","948","-61.38954033403479","956","3.94518622903756","957","17.878696595841348","966","43.994913994745815","975","-22.750976342787638","976","-22.750976342787638","984","35.21759296819272","985","35.21759296819272","993","-40.314100160497276","994","-40.314100160497276","1001","38.45370921670596","1002","45","1012","-34.508522987668414","1021","44.14490260373328","1029","-52.224315694045345","1030","-54.462322208025626","1039","12.33908727832619","1040","12.33908727832619","1048","-52.49585763972988","1049","-52.49585763972988","1057","52.59464336859144","1058","53.39292518739249","1062","56.68936917543919","1066","56.68936917543919","1067","56.68936917543919","1072","56.68936917543919","1073","56.68936917543919","1081","101.30993247402021","1085","103.44861505168652","1094","-137.29061004263852","1095","-135","1102","-121.8907918018457","1103","-121.8907918018457","1111","164.5778386812613","1112","164.5778386812613","1119","153.43494882292202","1120","153.43494882292202","1129","-131.76029970389786","1130","-129.6106882400266","1133","-129.6106882400266","1137","-129.6106882400266","1141","-129.6106882400266","1150","150.94539590092285","1151","150.94539590092285","1154","150.94539590092285","1155","150.94539590092285","1165","-117.89727103094762","1166","-117.89727103094762","1174","144.16234704572173","1175","133.45184230102205","1183","133.45184230102205","1189","133.45184230102205","1190","133.45184230102205","1191","133.45184230102205","1201","110.22485943116808","1202","110.22485943116808","1205","110.22485943116808","1206","110.22485943116808","1210","110.22485943116808","1211","110.22485943116808","1218","110.72555886556054","1219","110.72555886556054","1222","110.72555886556054","1223","110.72555886556054","1226","-118.30075576600638","1233","102.0947570770121","1234","101.82148834060726","1242","-96.20344790169179","1243","-96.20344790169179","1251","74.05460409907714","1252","75.37912601136834","1260","-72.12130340415865","1261","-72.12130340415865","1264","-72.12130340415865","1265","-72.12130340415865","1269","-70.97439396243132","1273","-70.97439396243132","1274","-70.97439396243132","1283","81.46923439005187","1284","81.46923439005187","1287","81.2538377374448","1288","81.2538377374448","1298","-82.33319573818585","1313","75.96375653207352","1314","75.96375653207352","1315","75.96375653207352","1331","-117.18111108547723","1332","-117.18111108547723","1335","-117.18111108547723","1336","-117.18111108547723","1340","-117.18111108547723","1345","-126.1581854398083","1346","-133.60281897270363","1354","178.02506598911802","1355","168.69006752597977","1358","168.69006752597977","1359","168.69006752597977","1362","168.69006752597977","1363","168.69006752597977","1370","142.1250163489018","1371","135","1379","177.95459151111277","1380","-174.0938588862295","1388","150.75117366345302","1389","144.6887865603668","1397","-159.4439547804165","1398","-155.37643521383637","1399","-155.37643521383637","1406","133.83086067209257","1407","132.79740183823418","1414","-157.06789956241022","1415","-150.01836063115064","1424","156.25050550713325","1432","-106.62075691389202","1433","-105.61098853367966","1441","3.0127875041833505","1450","90","1451","92.48955292199915","1459","-82.56859202882748","1460","-82.56859202882748","1461","-82.56859202882748","1469","74.74488129694222","1478","-69.86369657175186","1479","-69.86369657175186","1487","62.10272896905237","1488","62.10272896905237","1495","-34.99202019855868","1496","-34.99202019855868","1504","74.35775354279127","1505","74.35775354279127","1512","-18.434948822922024","1513","33.11134196037202","1514","64.98310652189997","1515","101.0035408517495","1516","135","1517","166.55138494831348","1518","-157.96377305985453","1519","-129.20720350496782","1520","-109.13364320590549","1521","-90","1522","-66.80140948635182","1523","-27.18111108547724","1524","12.804266065286754","1525","37.77568430595466","1526","59.58891873287463","1527","78.8869594640517","1528","96.54629078329404","1529","112.69379494509236","1530","135.83031548625803","1531","-170.53767779197437","1540","-67.28558764683277","1541","-70.01689347810003","1550","-7.5946433685914485","1558","74.47588900324574","1559","74.47588900324574","1566","-81.32682595212023","1567","-81.32682595212023","1575","111.25050550713324","1576","111.25050550713324","1583","158.19859051364818","1584","178.21008939175394","1585","-138.94518622903755","1586","-115.0168934781","1587","-96.84277341263095","1588","-71.56505117707798","1589","-37.64762064010766","1590","0","1591","19.23067237566127","1592","40.60129464500446","1593","57.994616791916506","1594","75.65066795705286","1595","99.21102654081668","1596","132.51044707800085","1597","175.10090754621223","1598","-162.89727103094762","1599","-141.76617482255304","1600","-108.82471001824007","1601","-82.18470645323313","1602","-62.927919762007235","1603","-29.197486046064483","1604","23.385221057213755","1605","50.35582504285519","1606","75.06858282186245","1607","101.07020257793936","1608","119.74488129694222","1609","132.436229788535","1610","141.54629078329404","1620","112.06789956241022","1621","111.54097591853844","1628","-131.76029970389786","1629","-131.76029970389786","1638","107.96913974015702","1639","107.96913974015702","1646","-126.52885536698517","1647","-126.52885536698517","1654","135","1655","145.61965527615513","1656","166.3286928678042","1657","-152.65012421993012","1658","-119.35775354279127","1659","-93.01278750418334","1660","-65.32313682966296","1661","-45","1662","-22.06789956241022","1663","8.53076560994812","1664","34.04593735660167","1665","56.0035408517495","1666","69.8293465881496","1667","87.61405596961119","1668","114.77514056883192","1669","138.1221304621157","1670","154.17900802581073","1671","-175.2363583092738","1672","-122.00538320808352","1673","-94.89909245378772","1674","-71.1468412355809","1675","-55.66978280449669","1676","-32.27564431457763","1677","-5.856013585428968","1678","25.82099197418927","1679","61.26020470831196","1680","75.96375653207352","1691","157.3801350519596","1692","164.35775354279127","1699","-116.56505117707798","1700","-116.56505117707798","1706","125.75388725443675","1717","-120.96375653207352","1718","-120.96375653207352","1728","100.95406264339833","1737","-92.93567344642116","1738","-92.93567344642116","1747","12.804266065286754","1748","15.255118703057775","1755","37.874983651098205","1756","37.874983651098205","1764","37.874983651098205","1765","37.874983651098205","1773","37.874983651098205","1774","37.874983651098205","1775","37.874983651098205","1784","10.007979801441337","1790","0","1793","0","1794","0","1802","10.007979801441337","1803","15.52411099675426","1810","71.56505117707799","1811","71.56505117707799","1818","-99.24611274556321","1819","-99.24611274556321","1827","105.3762512488262","1828","105.3762512488262","1835","-122.47119229084848","1836","-123.69006752597977","1839","-123.69006752597977","1840","-123.69006752597977","1844","-123.69006752597977","1854","-170.83765295427827","1855","-170.83765295427827","1858","-171.11934084947973","1859","-171.11934084947973","1869","-84.14398641457103","1877","132.70938995736148","1878","128.65980825409008","1887","-75.96375653207352","1895","103.49573328079582","1896","99.46232220802561","1904","-171.0273733851036","1905","-177.27368900609372","1908","177.39743779750017","1909","177.39743779750017","1912","175.23635830927384","1916","175.23635830927384","1917","175.23635830927384","1927","-104.53445508054008","1930","-104.53445508054008","1931","-104.53445508054008","1940","-49.96974072811031","1941","-49.96974072811031","1949","95.35582504285519","1950","95.1944289077348","1951","95.1944289077348","1958","-132.70938995736145","1959","-132.70938995736145","1966","133.1523897340054","1967","128.99099404250546","1968","128.99099404250546","1975","-43.02506598911805","1976","-43.152389734005396","1981","75.96375653207352","1982","96.581944655178","1985","96.3401917459099","1986","96.3401917459099","1988","96.3401917459099","1989","96.3401917459099","1999","-138.3664606634298","2002","-138.3664606634298","2003","-138.3664606634298","2013","-38.92754359279229","2014","-38.92754359279229","2022","45","2023","45.85509739626672","2031","79.79602627826831","2032","79.79602627826831","2040","-80.5376777919744","2041","-80.5376777919744","2048","114.22774531795417","2052","115.3461759419467","2053","119.05460409907715","2057","150.2551187030578","2058","176.42366562500266","2061","-135","2062","-130.6012946450045","2070","-99.0394828033551","2071","-99.0394828033551","2073","-99.0394828033551","2074","-99.0394828033551","2075","-99.0394828033551","2084","-27.824096384253252","2092","45","2093","45","2101","-91.5911402711946","2102","-91.54815769897795","2111","102.0947570770121","2112","102.0947570770121","2120","-99.9262455066517","2121","-99.9262455066517","2130","91.63657704161672","2131","90","2140","-92.48955292199912","2149","85.60129464500447","2157","-91.61353893288117","2158","-91.61353893288117","2165","84.47245984834383","2166","84.64417495714481","2175","-87.3974377975002","2176","-87.3974377975002","2183","81.2538377374448","2184","81.2538377374448","2192","-88.4088597288054","2193","-88.4088597288054","2201","85.98582430458897","2202","85.98582430458897","2210","-92.43664824681014","2211","-92.43664824681014","2219","93.57633437499734","2227","-22.166345822082462","2228","-20.323136829662957","2237","-172.40535663140855","2238","176.98721249581666","2246","0","2255","-176.98721249581666","2256","-177.13759477388822","2264","1.5911402711945755","2273","-177.61405596961117","2274","180","2282","8.130102354155966","2283","7.765166018425333","2291","169.11447294534128","2292","169.11447294534128","2299","-164.93151184050777","2300","-156.03751102542182","2301","-141.9529574681739","2302","-112.16634582208243","2303","-74.29136217098426","2304","-45","2305","-24.676863170337043","2306","6.952957468173906","2307","36.86989764584402","2308","60.70863782901574","2309","86.49646835521554","2310","106.58733855692742","2311","122.27564431457763","2312","145.88552705465872","2313","169.04593735660166","2314","-164.5778386812613","2315","-137.6025622024998","2316","-116.56505117707798","2317","-88.21008939175394","2318","-61.26020470831199","2319","-37.74680538727468","2320","-22.06789956241022","2321","-7.305759533310834","2322","4.513988458001265","2323","21.501434324047906","2324","49.573921259900864","2325","67.38013505195957","2326","75.25643716352927","2327","88.49256424122503","2328","106.38954033403479","2329","118.88658176691071","2330","136.33221985386965","2331","158.9624889745782","2332","-175.76360520094113","2333","-138.81407483429035","2334","-115.27772223555297","2335","-99.46232220802563","2336","-84.80557109226518","2337","-68.68208772453846","2338","-41.760299703897886","2339","3.179830119864235","2340","29.05460409907714","2341","45","2342","71.20011484134734","2343","86.9335144988741","2344","97.1250163489018","2345","109.13364320590549","2346","123.69006752597979","2347","146.88865803962798","2348","-166.60750224624888","2349","-129.28940686250036","2350","-110.72555886556052","2351","-100.08059798754232","2352","-85.03025927188972","2353","-70.34617594194668","2354","-47.12109639666144","2355","-12.339087278326204","2356","11.976132444203358","2357","30.141385552075334","2358","43.87669728592457","2359","59.85861444792465","2360","83.48019824834302","2367","94.08561677997487","2368","90","2377","-92.38594403038883","2378","-92.38594403038883","2386","22.93210043758978","2387","22.93210043758978","2395","100.12467165539782","2396","102.0947570770121","2404","-139.1849161251184","2405","-138.9909130984298","2413","138.81407483429035","2414","138.81407483429035","2422","-136.33221985386965","2423","-136.33221985386965","2431","121.7594800848128","2432","121.7594800848128","2440","-112.98871680208063","2441","-112.98871680208063","2448","77.7352262721076","2449","77.7352262721076","2457","-32.27564431457763","2458","-32.27564431457763","2465","60.751173663453024","2466","60.751173663453024","2473","-73.73979529168807","2474","-73.73979529168807","2480","99.86580694308437","2481","100.30484646876603","2488","-107.81888891452277","2489","-107.81888891452277","2497","108.97040780848654","2498","108.97040780848654","2506","-109.98310652189997","2507","-109.98310652189997","2514","105.94539590092286","2515","104.93141717813755","2524","-81.86989764584402","2525","-82.69424046668917","2533","21.037511025421807","2534","19.653824058053303","2542","80.53767779197439","2543","82.69424046668918","2551","-80.13419305691565","2552","-80.13419305691565","2560","94.08561677997487","2561","93.94518622903756","2568","-90","2569","-90","2570","-90","2578","97.35237935989235","2579","97.35237935989235","2587","-146.3099324740202","2588","-148.3924977537511","2598","122.47119229084849","2606","154.98310652189997","2607","168.69006752597977","2614","-107.52556837372288","2615","-107.52556837372288","2622","102.68038349181982","2623","103.70696100407982","2630","-111.80140948635182","2631","-111.16125981682828","2640","101.88865803962797","2641","101.88865803962797","2650","-101.63363399894047","2651","-101.63363399894047","2659","90","2660","90","2667","-77.90524292298792","2668","-77.90524292298792","2676","55.78429786756259","2677","55.78429786756259","2684","-77.73522627210761","2685","-77.73522627210761","2692","91.46880071438582","2693","91.46880071438582","2694","91.46880071438582","2702","2.2906100426385336","2703","2.202598161765806","2708","75.96375653207352","2709","130.6012946450045","2712","130.6012946450045","2713","130.6012946450045","2719","135","2722","135","2723","135","2731","-101.59217541029102","2732","-101.59217541029102","2733","-101.59217541029102","2740","86.98721249581666","2741","86.98721249581666","2749","-147.72435568542238","2750","-149.03624346792648","2757","98.42696902148067","2758","98.42696902148067","2767","-172.8749836510982","2770","-172.8749836510982","2771","-172.8749836510982","2772","-172.8749836510982","2775","-172.8749836510982","2778","-172.8749836510982","2779","-172.8749836510982","2782","-172.8749836510982","2791","-172.8749836510982","2794","-172.8749836510982","2804","-65.48035731180926","2805","-65.48035731180926","2813","7.853313301978218","2814","9.782407031807281","2822","-54.09027692082233","2823","-54.09027692082233","2831","25.559965171823805","2832","33.690067525979785","2833","33.690067525979785","2839","33.690067525979785","2840","33.690067525979785","2841","33.690067525979785","2844","33.690067525979785","2845","33.690067525979785","2846","33.690067525979785","2849","33.690067525979785","2850","33.690067525979785","2853","33.690067525979785","2854","33.690067525979785","2863","22.619864948040416","2866","-17.65012421993012","2867","-17.65012421993012","2875","-67.55724663470565","2876","-67.55724663470565","2883","14.036243467926468","2884","14.036243467926468","2893","-87.27368900609372","2902","84.92039213998542","2903","86.18592516570965","2910","-104.03624346792648","2911","-104.03624346792648","2914","-106.50436138175502","2915","-106.50436138175502","2918","-106.50436138175502","2919","-106.50436138175502","2922","-106.50436138175502","2923","-106.50436138175502","2926","-106.50436138175502","2927","-106.50436138175502","2934","-122.00538320808352","2935","-143.9726266148964","2938","-155.55604521958344","2939","-155.55604521958344","2947","107.65012421993012","2948","107.65012421993012","2955","165.96375653207355","2956","-174.28940686250036","2957","-174.28940686250036","2965","111.5014343240479","2966","111.5014343240479","2973","-118.8865817669107","2974","-118.8865817669107","2982","96.00900595749452","2986","96.00900595749452","2987","96.00900595749452","2989","96.00900595749452","2990","96.00900595749452","2993","96.00900595749452","2994","96.00900595749452","2999","95.71059313749964","3000","95.71059313749964","3008","-90","3011","-90","3012","-90","3021","-5.710593137499643","3022","10.30484646876603","3028","52.69605172201658","3029","56.309932474020215","3037","55.78429786756259","3038","55.78429786756259","3046","39.80557109226519","3047","22.833654177917552","3054","-53.13010235415598","3055","-54.246112745563266","3058","-55.304846468766016","3059","-55.304846468766016","3062","-55.304846468766016","3063","-55.304846468766016","3065","-55.304846468766016","3066","-55.304846468766016","3070","-55.304846468766016","3071","-55.304846468766016","3078","-49.39870535499551","3079","-38.290163192243085","3082","-38.290163192243085","3083","-38.290163192243085","3091","84.72610404264823","3092","84.72610404264823","3099","105.94539590092286","3100","111.80140948635182","3108","168.11134196037204","3109","168.11134196037204","3116","-97.49585763972982","3117","-96.34019174590992","3118","-96.34019174590992","3125","-14.036243467926496","3126","-2.2906100426385336","3127","0","3130","4.573921259900857","3131","15.642246457208728","3134","15.642246457208728","3135","15.642246457208728","3141","15.642246457208728","3142","15.642246457208728","3149","15.642246457208728","3150","15.642246457208728","3152","15.642246457208728","3153","15.642246457208728","3162","82.23483398157467","3163","82.23483398157467","3164","82.23483398157467","3171","-68.19859051364818","3172","-70.55996517182382","3180","88.15238973400541","3181","90","3189","-106.99082329198615","3190","-108.43494882292202","3191","-108.43494882292202","3198","180","3199","180","3201","180","3202","180","3205","177.87890360333853","3206","177.79740183823418","3209","177.79740183823418","3210","177.79740183823418","3214","177.79740183823418","3215","177.79740183823418","3216","177.79740183823418","3221","175.6012946450045","3222","173.418055344822","3223","173.418055344822","3225","173.418055344822","3226","173.418055344822"]],"E":["charts",["41/109.6538240580533/42/109.6538240580533/48/120.96375653207352/49/156.03751102542182/50/180/57/-124.50852298766839/58/-113.74949449286675/66/-58.392497753751115/74/11.309932474020215/77/11.309932474020215/78/11.309932474020215/85/-78.9964591482505/86/-81.4692343900519/92/-143.7461622625552/93/-162.64597536373867/94/-162.64597536373867/104/149.03624346792648/105/143.13010235415598/114/99.1623470457217/115/99.1623470457217/118/99.1623470457217/119/99.1623470457217/129/93.01278750418334/130/93.01278750418334/137/41.63353933657019/138/41.63353933657019/145/-42.13759477388828/146/-45/153/66.80140948635182/154/68.19859051364818/156/64.79887635452492/157/63.43494882292201/163/-84.95754893082912/164/-87.27368900609372/174/118.81079374297306/175/116.56505117707799/181/-110.95577673063218/182/-109.5024485066622/191/92.2025981617658/197/-88.2642954110716/198/-88.31531568210374/205/78.11134196037203/206/79.2157021324374/213/-67.52056560289688/220/115.64100582430528/221/114.77514056883192/227/-117.0955524937518/228/-117.0955524937518/235/98.61564818416412/236/98.13010235415598/242/-111.44773632710533/243/-108.97040780848653/250/102.87500155961247/251/102.20046872738078/256/-161.56505117707798/257/-126.86989764584402/264/-126.86989764584402/267/-139.3987053549955/268/-139.3987053549955/274/171.86989764584405/275/124.99202019855866/280/124.99202019855866/285/-109.65382405805332/286/-109.02560603756868/289/-109.02560603756868/290/-109.65382405805332/293/-109.65382405805332/294/-111.44773632710533/299/139.7636416907262/300/132.87890360333856/303/127.8749836510982/304/127.8749836510982/306/126.38435181583588/307/126.38435181583588/310/126.38435181583588/314/67.89055165624833/315/62.10272896905237/318/58.29857033049428/319/58.29857033049428/321/53.42696902148067/322/49.236394799058836/325/32.347443499442036/326/22.109448343751666/328/-30.173520029644322/329/-39.289406862500385/330/-41.55261314813481/332/-44.341456822436385/333/-44.341456822436385/336/-50.572197803963775/339/-63.434948822922024/340/-71.99583839408663/342/-86.82016988013578/343/-93.57633437499737/344/-102.72435568542238/346/-119.05460409907712/347/-126.1581854398083/350/-147.99461679191648/351/-154.0577045101283/353/-171.52885536698517/354/-174.1736579704442/357/172.01067323360311/360/164.18080605249986/361/159.22774531795417/364/143.53076560994813/365/137.17474411461006/368/123.36636600105956/369/120.34324888423959/372/93.3664606634298/373/93.46822925891715/381/-87.56335175318986/382/-87.56335175318986/389/84.28940686250036/390/84.68545433005525/396/-72.47443162627712/397/-72.47443162627712/405/62.4471884232822/406/62.4471884232822/412/-70.34617594194668/413/-73.30075576600638/419/-10.30484646876603/420/45/449/-59.743562836470744/450/-59.743562836470744/451/-59.743562836470744/457/-59.743562836470744/458/-59.743562836470744/468/-59.743562836470744/472/-59.743562836470744/474/-59.743562836470744/475/-58.671307132195835/487/-28.072486935852965/488/-21.801409486351815/499/52.69605172201658/500/57.38075692880717/504/60.01836063115067/505/63.43494882292201/508/102.80426606528675/509/122.27564431457763/511/154.44003482817618/512/159.44395478041653/515/-154.2900462191887/516/-142.76516601842533/518/-120.14138555207535/519/-112.38013505195957/522/-88.36342295838327/523/-81.63411387596744/526/-52.81529354676687/527/-50.389311759973396/530/-25.866356794094543/531/-24.443954780416547/534/9.211026540816647/535/17.447188423282185/537/36.57303097851933/538/42.79740183823419/544/101.30993247402021/545/126.2538377374448/546/156.3706222693432/547/-146.3099324740202/548/-104.47029410006587/549/-83.99099404250546/550/-66.44773632710536/551/-42.27368900609375/552/-17.10272896905238/553/-3.0940580589171134/554/8.746162262555202/555/40.60129464500446/556/161.56505117707798/557/-157.38013505195957/558/-95.19442890773485/559/-69.77514056883192/560/-56.30993247402023/561/-41.53177074108285/562/-20.3764352138364/563/-2.045408488887233/564/15.945395900922847/565/45/566/-118.61045966596521/567/-97.76516601842536/568/-70.34617594194668/569/-46.1691393279074/570/0/571/42.79740183823419/572/69.27444113443946/573/94.89909245378776/574/123.69006752597979/575/-167.47119229084848/576/-110.55604521958347/577/-84.0938588862295/578/-47.48955292199915/579/0/580/30.465544919459873/581/55.88552705465874/582/91.73570458892839/583/124.82448915695679/584/-176.6335393365702/585/-105.94539590092288/586/-79.50852298766841/587/-56.30993247402023/588/-14.620873988631672/589/32.471192290848485/590/71.02959219151346/593/164.47588900324575/594/180/600/-107.81888891452277/601/-107.81888891452277/606/104.03624346792648/607/104.03624346792648/612/-172.40535663140855/613/-143.61564818416412/618/122.61924307119283/619/112.38013505195957/620/112.98871680208063/625/-86.72951207681643/626/-87.20729763428673/632/61.26020470831196/633/66.19405648154228/642/-34.38034472384487/643/-34.38034472384487/644/-34.38034472384487/648/-18.434948822922024/649/19.653824058053303/651/19.653824058053303/652/19.653824058053303/658/66.03751102542182/659/78.23171106797935/664/100.88552705465874/669/-176.18592516570965/670/-157.6198649480404/673/-152.10272896905235/674/-149.5344550805401/676/-136.73570458892837/677/-128.29016319224309/680/-123.69006752597977/685/-53.13010235415598/686/-47.6025622024998/693/40.100907546212234/694/46.46880071438583/700/-57.994616791916485/701/-64.65382405805332/707/75.52970589993411/708/78.9964591482505/709/78.9964591482505/714/-74.47588900324575/715/-81.86989764584402/716/-81.86989764584402/722/81.11934084947976/723/82.09283729704154/724/82.09283729704154/730/-81.2538377374448/731/-81.2538377374448/736/82.64762064010765/737/83.2110254255612/743/60.52411099675426/744/56.309932474020215/754/156.25050550713325/755/157.06789956241022/756/157.06789956241022/764/-142.25319461272534/765/-142.25319461272534/771/18.43494882292201/772/18.43494882292201/775/53.74616226255521/776/102.80426606528675/778/162.47443162627712/779/-157.6198649480404/780/-143.13010235415598/782/-98.13010235415595/783/-82.23483398157467/786/-36.158185439808335/787/-28.886581766910723/789/1.7357045889283995/790/19.53665493812838/793/70.14478563067894/794/83.99099404250548/796/101.63363399894044/797/109.6538240580533/799/165.96375653207355/800/-165.06858282186244/801/-144.46232220802563/804/-79.69515353123398/807/-58.24051991518721/808/-54.833563964207116/811/-35.80334410837109/814/-12.264773727892404/815/-3.3664606634298053/818/21.194056481542276/819/37.11686068327027/821/70.4633450618716/822/82.23483398157467/823/120.25643716352927/825/-172.8749836510982/826/-165.9637565320735/831/-55.71312302279105/832/-53.53076560994813/839/61.389540334034784/840/63.43494882292201/847/-92.72631099390628/848/-92.72631099390628/855/110.55604521958347/856/110.55604521958347/862/-99.21102654081665/863/-100.17551084304318/872/158.9624889745782/873/142.43140797117252/874/139.7636416907262/883/-122.73522627210761/884/-122.73522627210761/890/2.6025622024998114/891/13.495733280795804/898/135/899/135/905/-125.53767779197437/906/-125.53767779197437/914/47.72631099390627/921/157.3801350519596/922/157.3801350519596/928/-140.1944289077348/929/-135/930/-135/946/150.94539590092285/947/166.4295656148385/948/-154.2900462191887/949/-119.7448812969422/950/-107.59242456218158/951/-88.63607246839709/952/-55.88552705465875/953/-20.924501744921173/954/14.74356283647073/955/36.0273733851036/956/67.69379494509235/957/98.91492695714787/958/120.78414652632645/959/139.68589983950272/960/-169.11447294534125/961/-107.10272896905238/962/-75.06858282186246/963/-47.38594403038883/964/-26.56505117707799/965/-1.7899106082460605/966/19.653824058053303/967/42.27368900609373/968/67.52056560289688/969/91.73570458892839/970/114.44395478041653/971/135/972/154.98310652189997/973/-168.69006752597977/974/-116.56505117707798/975/-93.46822925891718/976/-84.47245984834382/988/105.25511870305778/989/104.62087398863166/990/104.62087398863166/994/104.03624346792648/995/100.88552705465874/997/100.88552705465874/998/100.88552705465874/1001/101.30993247402021/1002/101.30993247402021/1005/101.30993247402021/1008/101.30993247402021/1011/6.340191745909905/1012/1.3971810272963694/1017/-13.240519915187207/1018/-22.479434397103134/1023/-78.95905981967627/1024/-80.31121343963318/1025/-80.31121343963318/1030/-90/1031/-90/1037/-122.00538320808352/1038/-122.00538320808352/1045/173.88449643371462/1046/173.88449643371462/1051/-132.87890360333856/1052/-132.87890360333856/1055/-132.87890360333856/1056/-132.87890360333856/1061/-57.42594286542749/1062/-53.39292518739251/1065/-35.8376529542783/1066/-4.763641690726189/1067/5.042451069170909/1074/54.09027692082232/1075/55.007979801441344/1081/82.8749836510982/1087/118.88658176691071/1088/118.88658176691071/1089/122.73522627210761/1094/161.02959219151347/1095/178.36342295838327/1096/-150.25511870305775/1097/-115.46334506187159/1098/-60.2551187030578/1099/7.125016348901809/1100/116.56505117707799/1101/150.75117366345302/1102/159.22774531795417/1103/175.6012946450045/1104/180/1105/168.11134196037204/1106/153.43494882292202/1107/154.44003482817618/1108/162.89727103094765/1109/175.6012946450045/1110/177.27368900609375/1111/161.56505117707798/1119/155.22485943116808/1120/147.52880770915152/1126/130.36453657309735/1127/131.98721249581666/1133/112.47943439710312/1134/110.13630342824814/1138/59.93141717813755/1141/-9.782407031807281/1142/-14.931417178137565/1145/-32.82854179141253/1146/-39.40066066347944/1149/-75.46554491945992/1150/-90/1153/-127.87498365109818/1154/-141.84277341263095/1157/101.88865803962797/1158/95.1944289077348/1164/90/1165/-135/1168/-105.94539590092288/1169/-105.94539590092288/1175/97.69605172201656/1176/97.49585763972986/1179/97.69605172201656/1180/93.57633437499734/1184/74.74488129694222/1185/80.53767779197439/1188/90/1189/92.86240522611175/1196/90/1197/87.51044707800085/1201/76.50426671920418/1203/76.50426671920418/1205/74.05460409907714/1206/74.74488129694222/1208/72.64597536373867/1211/55.007979801441344/1212/29.05460409907714/1213/-13.495733280795804/1214/-27.40757543781841/1215/-35.53767779197439/1217/-41.987212495816664/1218/-43.02506598911805/1220/-62.10272896905238/1221/-75.96375653207352/1224/-109.29004621918872/1227/-117.18111108547723/1229/-139.08561677997488/1233/-151.0735741647464/1235/-150.94539590092285/1236/-152.10272896905235/1237/-151.3895403340348/1238/-151.3895403340348/1239/-152.70042778866718/1242/-159.86369657175186/1247/-160.9743939624313/1251/-168.23171106797935/1255/146.30993247402023/1256/126.86989764584402/1257/126.86989764584402/1259/110.55604521958347/1260/97.1250163489018/1263/-2.862405226111761/1264/-12.528807709151522/1267/-23.702645950966243/1268/-26.029592191513487/1269/-27.07208023799278/1271/-31.607502246248913/1275/-33.178511659392754/1276/-33.95905981967627/1278/-22.714412353167234/1281/-5.194428907734832/1282/-3.9909130984298002/1283/-1.5074357587749745/1284/3.814074834290352/1285/15.945395900922847/1286/20.22485943116807/1288/20.22485943116807/1290/21.25050550713324/1292/25.016893478100016/1296/-90/1301/-68.19859051364818/1305/36.86989764584402/1306/45/1309/74.05460409907714/1310/98.7461622625552/1311/117.47443162627714/1313/133.66778014613035/1314/133.66778014613035/1315/135/1316/136.39718102729637/1317/139.39870535499554/1318/151.18920625702694/1321/-152.10272896905235/1325/-108.43494882292202/1328/-75.96375653207352/1330/-69.77514056883192/1332/-65.77225468204583/1334/-62.30052719194504/1336/-48.36646066342982/1337/-45.830315486258/1339/-37.568592028827496/1340/-32.73522627210761/1341/-25.513870427534258/1342/-23.96248897457818/1343/-10.407711312490065/1345/11.309932474020215/1347/19.05770451012833/1349/24.36245301531217/1350/26.1139126302907/1353/47.72631099390627/1357/64.72227776444706/1358/64.79887635452492/1362/38.65980825409009/1364/36.86989764584402/1366/32.0053832080835/1367/23.96248897457818/1369/11.88865803962797/1373/-22.249023657212376/1378/-41.18592516570965/1379/-41.18592516570965/1380/-46.21887523513132/1382/-53.47114463301483/1383/-54.86580694308435/1385/-63.434948822922024/1391/-102.99461679191654/1392/-102.99461679191654/1394/-102.99461679191654/1396/-102.99461679191654/1398/-102.99461679191654/1399/-102.99461679191654/1403/-124.21570213243737/1405/-145.1755108430432/1406/-146.88865803962796/1408/-150.52411099675425/1410/-151.3895403340348/1414/-160.55996517182382/1422/160.01689347810003/1423/160.01689347810003/1426/161.56505117707798/1427/163.30075576600638/1430/-154.7988763545249/1431/-128.29016319224309/1434/-101.97613244420336/1435/-100.30484646876602/1438/-53.13010235415598/1439/-23.1985905136482/1442/84.8055710922652/1443/94.08561677997487/1446/97.76516601842533/1449/-102.52880770915152/1450/-95.19442890773485/1451/-95.19442890773485/1453/-90/1454/90/1458/98.13010235415598/1461/83.6598082540901/1462/81.86989764584402/1465/33.690067525979785/1466/45/1470/-45/1471/-45/1474/-38.65980825409011/1475/-21.801409486351815/1481/84.14398641457105/1482/83.99099404250548/1508/155.55604521958347/1509/155.55604521958347/1510/155.55604521958347/1516/90/1517/84.8055710922652/1518/84.8055710922652/1523/5.710593137499629/1524/5.710593137499629/1525/5.710593137499629/1530/68.96248897457818/1531/70.3461759419467/1537/-102.52880770915152/1538/-102.52880770915152/1544/95.1944289077348/1545/94.01417569541103/1546/94.01417569541103/1553/164.05460409907715/1554/164.05460409907715/1559/-142.30575953331083/1560/-139.3987053549955/1567/121.32869286780416/1568/121.32869286780416/1573/65.55604521958347/1574/57.52880770915151/1575/57.52880770915151/1581/117.89727103094762/1582/117.89727103094762/1589/96.3401917459099/1590/86.82016988013577/1597/45/1602/48.576334374997344/1605/33.690067525979785/1606/31.42956561483851/1609/23.198590513648185/1610/17.65012421993012/1613/-33.178511659392754/1614/-34.695153531233984/1616/-47.38594403038883/1617/-51.07245640720771/1618/-63.434948822922024/1620/-72.75854060106002/1621/-79.50852298766841/1623/-92.12109639666147/1624/-106.26020470831193/1627/-167.19573393471325/1628/149.74356283647074/1634/111.44773632710536/1635/111.44773632710536/1641/-148.67130713219584/1642/-148.67130713219584/1649/121.60750224624891/1650/121.60750224624891/1656/-145.1755108430432/1657/-145.1755108430432/1663/91.54815769897797/1664/90/1665/90/1670/-128.8844964337146/1671/-127.99873244250469/1678/74.74488129694222/1679/74.40718906073366/1685/-68.83874018317172/1686/-68.83874018317172/1693/13.134022306396318/1694/13.134022306396318/1701/22.38013505195957/1702/23.198590513648185/1703/23.198590513648185/1706/23.198590513648185/1707/23.198590513648185/1710/23.198590513648185/1713/23.198590513648185/1714/23.198590513648185/1718/47.86240522611174/1719/52.765166018425326/1728/-47.72631099390628/1729/-48.990913098429814/1730/-48.990913098429814/1737/57.84770485871766/1738/57.84770485871766/1744/-65.77225468204583/1745/-72.25532837494308/1748/-72.25532837494308/1749/-72.25532837494308/1751/-72.25532837494308/1752/-72.25532837494308/1753/-72.25532837494308/1755/-61.699244233993625/1756/26.56505117707799/1759/92.72631099390627/1760/92.72631099390627/1762/92.60256220249981/1763/92.48955292199915/1766/180/1767/-118.07248693585294/1770/-110.92450174492114/1771/-110.37643521383637/1774/-110.72555886556052/1775/-110.72555886556052/1778/-113.62937773065681/1781/-113.62937773065681/1785/138.01278750418334/1786/116.56505117707799/1789/116.56505117707799/1790/118.81079374297306/1791/121.42956561483852/1793/125.21759296819272/1794/125.21759296819272/1800/148.5704343851615/1801/162.34987578006988/1802/170.90972307917767/1805/178.02506598911802/1806/178.02506598911802/1809/178.02506598911802/1810/178.02506598911802/1813/176.05481377096243/1814/176.05481377096243/1819/169.5085229876684/1820/167.47119229084848/1822/167.47119229084848/1823/167.47119229084848/1824/167.47119229084848/1826/167.47119229084848/1827/167.47119229084848/1830/167.47119229084848/1831/167.47119229084848/1835/116.56505117707799/1836/111.80140948635182/1837/111.80140948635182/1842/109.4400348281762/1849/43.53119928561418/1850/29.98163936884933/1851/29.98163936884933/1856/27.40757543781841/1860/-9.090276920822348/1863/-56.30993247402023/1864/-55.304846468766016/1870/-109.09349200048561/1871/-118.30075576600638/1872/-118.30075576600638/1878/-136.33221985386965/1879/-136.33221985386965/1885/145.30484646876604/1886/145.30484646876604/1887/145.30484646876604/1892/145.30484646876604/1893/137.48955292199915/1900/-133.02506598911802/1901/-133.02506598911802/1907/139.39870535499554/1908/126.86989764584402/1909/126.86989764584402/1915/-123.3885135761115/1916/-123.3885135761115/1922/147.0947570770121/1923/124.82448915695679/1924/124.82448915695679/1930/-119.9315118405078/1931/-119.9315118405078/1937/114.22774531795417/1938/103.13402230639632/1939/103.57043438516149/1945/-98.32565033042681/1946/-96.95295746817385/1952/-29.74488129694224/1953/-19.536654938128393/1961/83.6598082540901/1962/83.6598082540901/1967/-96.07245640720771/1968/-95.4923245571274/1969/-95.4923245571274/1974/102.38075692880717/1975/98.42696902148067/1976/98.58362148011395/1981/-140.4403320310055/1982/-140.4403320310055/1988/-37.405356631408566/1989/-19.798876354524936/1996/119.98163936884933/1997/119.98163936884933/2003/-90/2004/-90/2011/66.80140948635182/2012/49.39870535499553/2018/-6.009005957494537/2025/-175.6012946450045/2026/176.42366562500266/2027/176.18592516570965/2033/110.55604521958347/2034/86.18592516570965/2041/105.64224645720873/2042/102.80426606528675/2048/-12.528807709151522/2049/-16.699244233993625/2056/90/2057/90/2063/-65.3764352138364/2064/-65.3764352138364/2071/75.96375653207352/2072/75.96375653207352/2078/-80.90972307917767/2079/-81.08507304285214/2084/75.46554491945989/2085/75.96375653207352/2092/-69.67686317033704/2093/-69.67686317033704/2099/62.4471884232822/2100/61.389540334034784/2101/16.699244233993625/2102/-67.61986494804043/2103/-72.47443162627712/2104/-63.434948822922024/2105/33.690067525979785/2106/49.39870535499553/2107/11.309932474020215/2108/-38.65980825409011/2109/-30.963756532073518/2110/59.03624346792648/2111/75.96375653207352/2112/74.74488129694222/2113/53.13010235415598/2114/-18.434948822922024/2115/-26.56505117707799/2116/73.61045966596521/2117/91.63657704161672/2118/102.52880770915151/2119/130.6012946450045/2120/-124.69515353123398/2121/-90/2122/-61.38954033403479/2123/-19.44003482817618/2124/55.61965527615513/2125/84.28940686250036/2126/101.30993247402021/2127/149.5344550805401/2128/-144.1623470457217/2129/-107.81888891452277/2130/-80.8376529542783/2131/-51.34019174590992/2132/-7.5946433685914485/2133/33.690067525979785/2134/55.78429786756259/2135/100.12467165539782/2136/133.53119928561418/2137/171.4692343900519/2138/-115.46334506187159/2139/-75.96375653207352/2140/-53.9726266148964/2141/-16.38954033403479/2142/30.141385552075334/2143/57.65255650055797/2144/86.42366562500266/2145/115.55996517182382/2146/176.18592516570965/2147/-111.37062226934319/2148/-91.54815769897795/2149/-65.43282867939868/2150/-29.74488129694224/2151/-1.4688007143858357/2152/25.114834886144564/2153/62.7004277886672/2154/88.49256424122503/2155/103.32453126189078/2156/110.92450174492117/2157/106.18920625702694/2158/83.6598082540901/2159/46.2188752351313/2160/15.376251248826193/2161/-5.079607860014576/2162/-38.08877288097534/2163/-74.35775354279127/2164/-100.88552705465872/2165/-132.35745470593528/2166/-166.7594800848128/2167/145.84030545433058/2168/115.76932762433871/2169/78.3106308245608/2170/36.52885536698516/2171/2.4366482468101367/2172/-11.093723011557856/2173/-25.513870427534258/2174/-58.13402230639636/2175/-96.00900595749454/2176/-130.2363583092738/2177/-170.21759296819272/2178/144.46232220802563/2179/116.56505117707799/2180/86.18592516570965/2181/56.768288932020646/2182/36.32682595212024/2183/33.340707346477/2184/48.27048792318356/2185/72.25532837494306/2186/94.39870535499553/2187/106.55707137563665/2188/180/2189/-87.03906386583625/2190/-87.31622484053105/2191/-88.78112476486871/2192/-90/2193/-90/2194/-90/2195/-93.69138598645128/2196/-98.5307656099481/2197/90/2198/86.42366562500266/2199/71.56505117707799/2200/-90/2201/-90/2202/87.95459151111277/2203/86.90594194108289/2204/86.72951207681643/2205/86.05481377096244/2206/83.99099404250548/2207/-26.56505117707799/2208/-87.70938995736148/2209/-90/2210/-90/2211/-86.98721249581666/2212/84.0938588862295/2213/84.0531369460265/2214/83.36748538486154/2215/65.55604521958347/2216/-90/2217/-93.36646066342985/2218/108.43494882292201/2219/93.17983011986423/2220/-97.1250163489018/2225/69.67686317033706/2226/68.96248897457818/2227/67.38013505195957/2228/64.98310652189997/2229/116.56505117707799/2230/116.56505117707799/2231/3.5763343749973444/2232/20.323136829662943/2233/59.03624346792648/2234/108.97040780848654/2235/133.9190758133393/2236/-174.28940686250036/2237/-94.39870535499551/2238/-58.781597235653635/2239/-38.88449643371462/2240/-16.858398767738294/2241/7.5946433685914485/2242/32.0053832080835/2243/51.00900595749452/2244/71.56505117707799/2245/105.25511870305778/2246/145.00797980144134/2247/180/2248/-142.69605172201656/2249/-129.5596679689945/2250/-115.70995378081128/2251/-97.1250163489018/2252/-79.99202019855869/2253/-62.02052561151987/2254/-41.63353933657021/2255/-19.44003482817618/2256/7.907162702958445/2257/27.21611155730747/2258/37.998732442504654/2259/53.13010235415598/2260/72.47443162627712/2261/84.14398641457105/2262/98.36588612403258/2263/130.91438322002512/2264/180/2265/-144.78240703180728/2266/-119.47588900324575/2267/-97.1250163489018/2268/-81.2538377374448/2269/-68.19859051364818/2270/-58.81502534126162/2271/-45/2272/-32.905242922987924/2273/-17.92791976200725/2274/5.355825042855187/2275/25.70995378081126/2276/53.13010235415598/2277/67.52056560289688/2278/67.52056560289688/2279/64.29004621918874/2280/28.442928624363347/2281/-1.8476102659946037/2282/-16.189206257026953/2283/-33.6900675259798/2284/-50.826342029555775/2285/-61.26020470831199/2286/-70.46334506187162/2287/-83.65980825409011/2288/-100.7842978675626/2289/-116.56505117707798/2290/-135/2291/-174.80557109226515/2292/137.48955292199915/2293/115.3461759419467/2294/99.09027692082232/2295/75.46554491945989/2296/52.765166018425326/2297/31.827446576673104/2298/18.97040780848654/2299/12.33908727832619/2300/-7.5946433685914485/2301/-35.13419305691565/2302/-43.8308606720926/2303/-54.09027692082233/2304/-59.85861444792465/2305/-59.85861444792465/2306/-54.462322208025626/2307/-36.158185439808335/2308/-19.65382405805333/2309/-9.782407031807281/2310/1.9749340108819808/2311/15.945395900922847/2312/29.98163936884933/2313/42.39743779750019/2314/55.30484646876603/2315/65.69545073406329/2316/74.05460409907714/2317/75.57922687248902/2318/75.96375653207352/2319/75.96375653207352/2320/67.01128319791937/2321/48.65222278030634/2322/33.690067525979785/2323/21.161259816828277/2324/4.899092453787773/2325/-6.009005957494537/2326/-11.592175410291077/2327/-19.29004621918874/2328/-27.699472808055006/2329/-38.480198248343015/2330/-47.23117460803124/2331/-52.12501634890182/2332/-52.12501634890182/2333/-52.12501634890182/2334/-52.12501634890182/2335/-49.39870535499551/2336/-41.72951207681646/2337/-30.735487701920107/2338/-12.200468727380795/2339/17.927919762007235/2340/45/2341/58.13402230639632/2342/66.80140948635182/2343/75.37912601136834/2344/84.0531369460265/2345/95.9468630539735/2346/104.93141717813755/2347/113.02549200852803/2348/123.69006752597979/2349/145.71312302279102/2350/-177.51044707800085/2351/-143.9726266148964/2352/-130.0302592718897/2353/-121.82744657667311/2354/-108.43494882292202/2355/-90/2356/-77.00538320808349/2357/-61.606980578617026/2358/-52.59464336859145/2359/-41.18592516570965/2360/-27.824096384253252/2361/-15.124007308310567/2362/0/2363/17.447188423282185/2364/34.11447294534126/2365/46.080924186660695/2366/57.994616791916506/2367/75.17352002964434/2368/100.61965527615513/2369/136.33221985386965/2370/163.73979529168804/2371/-171.869897645844/2372/-148.57043438516146/2373/-127.87498365109818/2374/-114.44395478041653/2375/-97.1250163489018/2376/-85.42607874009911/2377/-69.44395478041653/2378/-51.00900595749454/2379/-31.328692867804165/2380/-10.885527054658752/2381/4.236394799058843/2382/19.179008025810717/2383/46.8476102659946/2384/80.53767779197439/2385/100.88552705465874/2386/122.00538320808349/2387/152.4471884232822/2388/-164.74488129694222/2389/-126.46923439005187/2390/-115.0168934781/2391/-108.97040780848653/2392/-95.19442890773485/2393/-79.38034472384487/2394/-60.945395900922875/2395/-38.047042531826094/2396/-22.932100437589796/2397/-10.4914770123316/2398/4.573921259900857/2399/31.42956561483851/2400/67.16634582208246/2401/106.26020470831196/2402/126.46923439005187/2403/136.46880071438582/2404/156.80140948635182/2405/-173.99099404250546/2406/-152.10272896905235/2407/-135/2408/-105.94539590092288/2409/-68.19859051364818/2410/-36.2538377374448/2411/-15.945395900922847/2412/0/2413/11.768288932020639/2414/23.498565675952094/2415/38.65980825409009/2416/61.389540334034784/2417/81.2538377374448/2418/105.0684881594922/2419/121.7594800848128/2420/135/2421/169.38034472384487/2422/-151.92751306414704/2423/-135/2424/-124.50852298766839/2425/-96.34019174590992/2426/-72.47443162627712/2427/-45/2428/-15.52411099675426/2429/6.340191745909905/2430/29.74488129694221/2431/72.64597536373867/2432/96.00900595749452/2433/115.46334506187162/2434/131.82016988013578/2435/148.2405199151872/2436/177.51044707800085/2437/-153.43494882292202/2438/-137.86240522611172/2439/-125.75388725443673/2440/-113.96248897457818/2441/-100.12467165539783/2442/-79.11447294534125/2443/-55.491477012331615/2444/-39.80557109226521/2445/-16.699244233993625/2446/63.43494882292201/2447/100.61965527615513/2448/115.3461759419467/2449/130.10090754621223/2450/141.34019174590992/2451/151.3895403340348/2452/172.23483398157467/2453/-163.30075576600638/2454/-143.13010235415598/2455/-113.19859051364818/2456/-63.434948822922024/2457/20.556045219583467/2458/61.699244233993625/2459/75.96375653207352/2460/84.47245984834383/2461/86.05481377096244/2462/85.91438322002513/2463/85.91438322002513/2464/85.91438322002513/","93/99.1301764822787/94/99.1301764822787/110/-96.581944655178/111/-96.581944655178/112/-96.581944655178/126/-15.945395900922847/127/-15.945395900922847/130/-15.945395900922847/131/-15.945395900922847/133/-15.945395900922847/134/-15.945395900922847/139/-15.945395900922847/140/-15.945395900922847/144/-15.945395900922847/153/12.20046872738078/154/19.35899417569472/157/19.35899417569472/158/19.35899417569472/168/93.41658819177134/169/93.41658819177134/185/-160.9743939624313/186/-158.19859051364818/187/-158.19859051364818/202/127.14668669802178/203/127.14668669802178/205/127.14668669802178/206/127.14668669802178/208/127.14668669802178/218/127.14668669802178/219/127.14668669802178/221/127.14668669802178/222/127.14668669802178/223/127.14668669802178/230/-129.9868862449642/231/-129.9868862449642/247/-73.53998518795996/248/-72.34987578006988/249/-72.34987578006988/265/66.03751102542182/266/66.03751102542182/273/130.2363583092738/274/132.87890360333856/282/-144.63753811293097/283/-144.63753811293097/370/98.7461622625552/371/98.7461622625552/379/16.927513064147035/380/15.78075330951539/388/95.1944289077348/389/95.1944289077348/396/174.14398641457103/403/-134.11859600341785/404/-132.35745470593528/410/155.09523119190482/411/155.09523119190482/417/-126.32682595212023/418/-126.32682595212023/426/130.8150838748816/435/-115.0168934781/436/-115.0168934781/444/95.71059313749964/445/95.71059313749964/454/-84.4278021960362/462/78.43986920578223/463/79.15969454566944/470/-63.434948822922024/471/-63.434948822922024/480/78.3106308245608/488/-91.68468431789626/489/-91.68468431789626/497/118.393019421383/498/117.14968169778317/505/-126.1932073055647/506/-126.1932073055647/514/125.36246188706906/515/125.36246188706906/523/-106.58733855692742/524/-106.58733855692742/533/90/534/90/541/-77.66091272167381/542/-78.02386755579664/550/14.036243467926468/551/15.642246457208728/560/88.31531568210372/567/-95.07960786001456/568/-95.07960786001456/576/-155.7722546820458/577/-155.7722546820458/584/124.11447294534126/585/124.11447294534126/593/-113.96248897457818/594/-113.96248897457818/602/117.75854060106002/603/117.75854060106002/610/-116.56505117707798/611/-116.56505117707798/620/67.75097634278762/621/60.945395900922854/627/-76.18497465873838/628/-76.39945748334125/636/-25.201123645475093/637/-23.96248897457818/643/24.443954780416533/644/26.56505117707799/650/80.21759296819272/651/80.21759296819272/660/124.38034472384487/661/124.38034472384487/668/-112.71441235316723/669/-112.71441235316723/677/116.56505117707799/685/-93.17983011986422/686/-93.17983011986422/695/-12.528807709151522/704/87.51044707800085/705/87.51044707800085/714/-91.8476102659946/722/98.7461622625552/732/-123.69006752597977/733/-123.69006752597977/742/112.98871680208063/750/-95.19442890773485/751/-95.19442890773485/759/-27.552811576717815/768/104.93141717813755/769/104.03624346792648/776/-97.30575953331083/777/-97.30575953331083/778/-97.30575953331083/785/117.25532837494308/786/117.25532837494308/795/-131.8778695378843/803/131.18592516570965/804/129.17365797044422/813/-135/814/-135/821/178.0908475670036/822/178.0908475670036/830/-94.63546342690267/831/-94.63546342690267/840/90/849/-30.579226872489016/850/-29.981639368849343/857/47.86240522611174/858/49.18491612511841/867/-97.69605172201659/868/-97.69605172201659/876/112.47943439710312/877/112.47943439710312/886/-129.17365797044422/887/-129.17365797044422/894/126.15818543980834/895/124.15969454566942/902/-126.86989764584402/903/-120.96375653207352/911/122.00538320808349/912/122.00538320808349/921/-126.86989764584402/922/-126.86989764584402/930/106.50436138175502/931/106.50436138175502/938/-107.3540246362613/939/-107.3540246362613/947/-69.7174409110834/948/-61.38954033403479/956/3.94518622903756/957/17.878696595841348/966/43.994913994745815/975/-22.750976342787638/976/-22.750976342787638/984/35.21759296819272/985/35.21759296819272/993/-40.314100160497276/994/-40.314100160497276/1001/38.45370921670596/1002/45/1012/-34.508522987668414/1021/44.14490260373328/1029/-52.224315694045345/1030/-54.462322208025626/1039/12.33908727832619/1040/12.33908727832619/1048/-52.49585763972988/1049/-52.49585763972988/1057/52.59464336859144/1058/53.39292518739249/1062/56.68936917543919/1066/56.68936917543919/1067/56.68936917543919/1072/56.68936917543919/1073/56.68936917543919/1081/101.30993247402021/1085/103.44861505168652/1094/-137.29061004263852/1095/-135/1102/-121.8907918018457/1103/-121.8907918018457/1111/164.5778386812613/1112/164.5778386812613/1119/153.43494882292202/1120/153.43494882292202/1129/-131.76029970389786/1130/-129.6106882400266/1133/-129.6106882400266/1137/-129.6106882400266/1141/-129.6106882400266/1150/150.94539590092285/1151/150.94539590092285/1154/150.94539590092285/1155/150.94539590092285/1165/-117.89727103094762/1166/-117.89727103094762/1174/144.16234704572173/1175/133.45184230102205/1183/133.45184230102205/1189/133.45184230102205/1190/133.45184230102205/1191/133.45184230102205/1201/110.22485943116808/1202/110.22485943116808/1205/110.22485943116808/1206/110.22485943116808/1210/110.22485943116808/1211/110.22485943116808/1218/110.72555886556054/1219/110.72555886556054/1222/110.72555886556054/1223/110.72555886556054/1226/-118.30075576600638/1233/102.0947570770121/1234/101.82148834060726/1242/-96.20344790169179/1243/-96.20344790169179/1251/74.05460409907714/1252/75.37912601136834/1260/-72.12130340415865/1261/-72.12130340415865/1264/-72.12130340415865/1265/-72.12130340415865/1269/-70.97439396243132/1273/-70.97439396243132/1274/-70.97439396243132/1283/81.46923439005187/1284/81.46923439005187/1287/81.2538377374448/1288/81.2538377374448/1298/-82.33319573818585/1313/75.96375653207352/1314/75.96375653207352/1315/75.96375653207352/1331/-117.18111108547723/1332/-117.18111108547723/1335/-117.18111108547723/1336/-117.18111108547723/1340/-117.18111108547723/1345/-126.1581854398083/1346/-133.60281897270363/1354/178.02506598911802/1355/168.69006752597977/1358/168.69006752597977/1359/168.69006752597977/1362/168.69006752597977/1363/168.69006752597977/1370/142.1250163489018/1371/135/1379/177.95459151111277/1380/-174.0938588862295/1388/150.75117366345302/1389/144.6887865603668/1397/-159.4439547804165/1398/-155.37643521383637/1399/-155.37643521383637/1406/133.83086067209257/1407/132.79740183823418/1414/-157.06789956241022/1415/-150.01836063115064/1424/156.25050550713325/1432/-106.62075691389202/1433/-105.61098853367966/1441/3.0127875041833505/1450/90/1451/92.48955292199915/1459/-82.56859202882748/1460/-82.56859202882748/1461/-82.56859202882748/1469/74.74488129694222/1478/-69.86369657175186/1479/-69.86369657175186/1487/62.10272896905237/1488/62.10272896905237/1495/-34.99202019855868/1496/-34.99202019855868/1504/74.35775354279127/1505/74.35775354279127/1512/-18.434948822922024/1513/33.11134196037202/1514/64.98310652189997/1515/101.0035408517495/1516/135/1517/166.55138494831348/1518/-157.96377305985453/1519/-129.20720350496782/1520/-109.13364320590549/1521/-90/1522/-66.80140948635182/1523/-27.18111108547724/1524/12.804266065286754/1525/37.77568430595466/1526/59.58891873287463/1527/78.8869594640517/1528/96.54629078329404/1529/112.69379494509236/1530/135.83031548625803/1531/-170.53767779197437/1540/-67.28558764683277/1541/-70.01689347810003/1550/-7.5946433685914485/1558/74.47588900324574/1559/74.47588900324574/1566/-81.32682595212023/1567/-81.32682595212023/1575/111.25050550713324/1576/111.25050550713324/1583/158.19859051364818/1584/178.21008939175394/1585/-138.94518622903755/1586/-115.0168934781/1587/-96.84277341263095/1588/-71.56505117707798/1589/-37.64762064010766/1590/0/1591/19.23067237566127/1592/40.60129464500446/1593/57.994616791916506/1594/75.65066795705286/1595/99.21102654081668/1596/132.51044707800085/1597/175.10090754621223/1598/-162.89727103094762/1599/-141.76617482255304/1600/-108.82471001824007/1601/-82.18470645323313/1602/-62.927919762007235/1603/-29.197486046064483/1604/23.385221057213755/1605/50.35582504285519/1606/75.06858282186245/1607/101.07020257793936/1608/119.74488129694222/1609/132.436229788535/1610/141.54629078329404/1620/112.06789956241022/1621/111.54097591853844/1628/-131.76029970389786/1629/-131.76029970389786/1638/107.96913974015702/1639/107.96913974015702/1646/-126.52885536698517/1647/-126.52885536698517/1654/135/1655/145.61965527615513/1656/166.3286928678042/1657/-152.65012421993012/1658/-119.35775354279127/1659/-93.01278750418334/1660/-65.32313682966296/1661/-45/1662/-22.06789956241022/1663/8.53076560994812/1664/34.04593735660167/1665/56.0035408517495/1666/69.8293465881496/1667/87.61405596961119/1668/114.77514056883192/1669/138.1221304621157/1670/154.17900802581073/1671/-175.2363583092738/1672/-122.00538320808352/1673/-94.89909245378772/1674/-71.1468412355809/1675/-55.66978280449669/1676/-32.27564431457763/1677/-5.856013585428968/1678/25.82099197418927/1679/61.26020470831196/1680/75.96375653207352/1691/157.3801350519596/1692/164.35775354279127/1699/-116.56505117707798/1700/-116.56505117707798/1706/125.75388725443675/1717/-120.96375653207352/1718/-120.96375653207352/1728/100.95406264339833/1737/-92.93567344642116/1738/-92.93567344642116/1747/12.804266065286754/1748/15.255118703057775/1755/37.874983651098205/1756/37.874983651098205/1764/37.874983651098205/1765/37.874983651098205/1773/37.874983651098205/1774/37.874983651098205/1775/37.874983651098205/1784/10.007979801441337/1790/0/1793/0/1794/0/1802/10.007979801441337/1803/15.52411099675426/1810/71.56505117707799/1811/71.56505117707799/1818/-99.24611274556321/1819/-99.24611274556321/1827/105.3762512488262/1828/105.3762512488262/1835/-122.47119229084848/1836/-123.69006752597977/1839/-123.69006752597977/1840/-123.69006752597977/1844/-123.69006752597977/1854/-170.83765295427827/1855/-170.83765295427827/1858/-171.11934084947973/1859/-171.11934084947973/1869/-84.14398641457103/1877/132.70938995736148/1878/128.65980825409008/1887/-75.96375653207352/1895/103.49573328079582/1896/99.46232220802561/1904/-171.0273733851036/1905/-177.27368900609372/1908/177.39743779750017/1909/177.39743779750017/1912/175.23635830927384/1916/175.23635830927384/1917/175.23635830927384/1927/-104.53445508054008/1930/-104.53445508054008/1931/-104.53445508054008/1940/-49.96974072811031/1941/-49.96974072811031/1949/95.35582504285519/1950/95.1944289077348/1951/95.1944289077348/1958/-132.70938995736145/1959/-132.70938995736145/1966/133.1523897340054/1967/128.99099404250546/1968/128.99099404250546/1975/-43.02506598911805/1976/-43.152389734005396/1981/75.96375653207352/1982/96.581944655178/1985/96.3401917459099/1986/96.3401917459099/1988/96.3401917459099/1989/96.3401917459099/1999/-138.3664606634298/2002/-138.3664606634298/2003/-138.3664606634298/2013/-38.92754359279229/2014/-38.92754359279229/2022/45/2023/45.85509739626672/2031/79.79602627826831/2032/79.79602627826831/2040/-80.5376777919744/2041/-80.5376777919744/2048/114.22774531795417/2052/115.3461759419467/2053/119.05460409907715/2057/150.2551187030578/2058/176.42366562500266/2061/-135/2062/-130.6012946450045/2070/-99.0394828033551/2071/-99.0394828033551/2073/-99.0394828033551/2074/-99.0394828033551/2075/-99.0394828033551/2084/-27.824096384253252/2092/45/2093/45/2101/-91.5911402711946/2102/-91.54815769897795/2111/102.0947570770121/2112/102.0947570770121/2120/-99.9262455066517/2121/-99.9262455066517/2130/91.63657704161672/2131/90/2140/-92.48955292199912/2149/85.60129464500447/2157/-91.61353893288117/2158/-91.61353893288117/2165/84.47245984834383/2166/84.64417495714481/2175/-87.3974377975002/2176/-87.3974377975002/2183/81.2538377374448/2184/81.2538377374448/2192/-88.4088597288054/2193/-88.4088597288054/2201/85.98582430458897/2202/85.98582430458897/2210/-92.43664824681014/2211/-92.43664824681014/2219/93.57633437499734/2227/-22.166345822082462/2228/-20.323136829662957/2237/-172.40535663140855/2238/176.98721249581666/2246/0/2255/-176.98721249581666/2256/-177.13759477388822/2264/1.5911402711945755/2273/-177.61405596961117/2274/180/2282/8.130102354155966/2283/7.765166018425333/2291/169.11447294534128/2292/169.11447294534128/2299/-164.93151184050777/2300/-156.03751102542182/2301/-141.9529574681739/2302/-112.16634582208243/2303/-74.29136217098426/2304/-45/2305/-24.676863170337043/2306/6.952957468173906/2307/36.86989764584402/2308/60.70863782901574/2309/86.49646835521554/2310/106.58733855692742/2311/122.27564431457763/2312/145.88552705465872/2313/169.04593735660166/2314/-164.5778386812613/2315/-137.6025622024998/2316/-116.56505117707798/2317/-88.21008939175394/2318/-61.26020470831199/2319/-37.74680538727468/2320/-22.06789956241022/2321/-7.305759533310834/2322/4.513988458001265/2323/21.501434324047906/2324/49.573921259900864/2325/67.38013505195957/2326/75.25643716352927/2327/88.49256424122503/2328/106.38954033403479/2329/118.88658176691071/2330/136.33221985386965/2331/158.9624889745782/2332/-175.76360520094113/2333/-138.81407483429035/2334/-115.27772223555297/2335/-99.46232220802563/2336/-84.80557109226518/2337/-68.68208772453846/2338/-41.760299703897886/2339/3.179830119864235/2340/29.05460409907714/2341/45/2342/71.20011484134734/2343/86.9335144988741/2344/97.1250163489018/2345/109.13364320590549/2346/123.69006752597979/2347/146.88865803962798/2348/-166.60750224624888/2349/-129.28940686250036/2350/-110.72555886556052/2351/-100.08059798754232/2352/-85.03025927188972/2353/-70.34617594194668/2354/-47.12109639666144/2355/-12.339087278326204/2356/11.976132444203358/2357/30.141385552075334/2358/43.87669728592457/2359/59.85861444792465/2360/83.48019824834302/2367/94.08561677997487/2368/90/2377/-92.38594403038883/2378/-92.38594403038883/2386/22.93210043758978/2387/22.93210043758978/2395/100.12467165539782/2396/102.0947570770121/2404/-139.1849161251184/2405/-138.9909130984298/2413/138.81407483429035/2414/138.81407483429035/2422/-136.33221985386965/2423/-136.33221985386965/2431/121.7594800848128/2432/121.7594800848128/2440/-112.98871680208063/2441/-112.98871680208063/2448/77.7352262721076/2449/77.7352262721076/2457/-32.27564431457763/2458/-32.27564431457763/2465/60.751173663453024/2466/60.751173663453024/2473/-73.73979529168807/2474/-73.73979529168807/2480/99.86580694308437/2481/100.30484646876603/2488/-107.81888891452277/2489/-107.81888891452277/2497/108.97040780848654/2498/108.97040780848654/2506/-109.98310652189997/2507/-109.98310652189997/2514/105.94539590092286/2515/104.93141717813755/2524/-81.86989764584402/2525/-82.69424046668917/2533/21.037511025421807/2534/19.653824058053303/2542/80.53767779197439/2543/82.69424046668918/2551/-80.13419305691565/2552/-80.13419305691565/2560/94.08561677997487/2561/93.94518622903756/2568/-90/2569/-90/2570/-90/2578/97.35237935989235/2579/97.35237935989235/2587/-146.3099324740202/2588/-148.3924977537511/2598/122.47119229084849/2606/154.98310652189997/2607/168.69006752597977/2614/-107.52556837372288/2615/-107.52556837372288/2622/102.68038349181982/2623/103.70696100407982/2630/-111.80140948635182/2631/-111.16125981682828/2640/101.88865803962797/2641/101.88865803962797/2650/-101.63363399894047/2651/-101.63363399894047/2659/90/2660/90/2667/-77.90524292298792/2668/-77.90524292298792/2676/55.78429786756259/2677/55.78429786756259/2684/-77.73522627210761/2685/-77.73522627210761/2692/91.46880071438582/2693/91.46880071438582/2694/91.46880071438582/2702/2.2906100426385336/2703/2.202598161765806/2708/75.96375653207352/2709/130.6012946450045/2712/130.6012946450045/2713/130.6012946450045/2719/135/2722/135/2723/135/2731/-101.59217541029102/2732/-101.59217541029102/2733/-101.59217541029102/2740/86.98721249581666/2741/86.98721249581666/2749/-147.72435568542238/2750/-149.03624346792648/2757/98.42696902148067/2758/98.42696902148067/2767/-172.8749836510982/2770/-172.8749836510982/2771/-172.8749836510982/2772/-172.8749836510982/2775/-172.8749836510982/2778/-172.8749836510982/2779/-172.8749836510982/2782/-172.8749836510982/2791/-172.8749836510982/2794/-172.8749836510982/2804/-65.48035731180926/2805/-65.48035731180926/2813/7.853313301978218/2814/9.782407031807281/2822/-54.09027692082233/2823/-54.09027692082233/2831/25.559965171823805/2832/33.690067525979785/2833/33.690067525979785/2839/33.690067525979785/2840/33.690067525979785/2841/33.690067525979785/2844/33.690067525979785/2845/33.690067525979785/2846/33.690067525979785/2849/33.690067525979785/2850/33.690067525979785/2853/33.690067525979785/2854/33.690067525979785/2863/22.619864948040416/2866/-17.65012421993012/2867/-17.65012421993012/2875/-67.55724663470565/2876/-67.55724663470565/2883/14.036243467926468/2884/14.036243467926468/2893/-87.27368900609372/2902/84.92039213998542/2903/86.18592516570965/2910/-104.03624346792648/2911/-104.03624346792648/2914/-106.50436138175502/2915/-106.50436138175502/2918/-106.50436138175502/2919/-106.50436138175502/2922/-106.50436138175502/2923/-106.50436138175502/2926/-106.50436138175502/2927/-106.50436138175502/2934/-122.00538320808352/2935/-143.9726266148964/2938/-155.55604521958344/2939/-155.55604521958344/2947/107.65012421993012/2948/107.65012421993012/2955/165.96375653207355/2956/-174.28940686250036/2957/-174.28940686250036/2965/111.5014343240479/2966/111.5014343240479/2973/-118.8865817669107/2974/-118.8865817669107/2982/96.00900595749452/2986/96.00900595749452/2987/96.00900595749452/2989/96.00900595749452/2990/96.00900595749452/2993/96.00900595749452/2994/96.00900595749452/2999/95.71059313749964/3000/95.71059313749964/3008/-90/3011/-90/3012/-90/3021/-5.710593137499643/3022/10.30484646876603/3028/52.69605172201658/3029/56.309932474020215/3037/55.78429786756259/3038/55.78429786756259/3046/39.80557109226519/3047/22.833654177917552/3054/-53.13010235415598/3055/-54.246112745563266/3058/-55.304846468766016/3059/-55.304846468766016/3062/-55.304846468766016/3063/-55.304846468766016/3065/-55.304846468766016/3066/-55.304846468766016/3070/-55.304846468766016/3071/-55.304846468766016/3078/-49.39870535499551/3079/-38.290163192243085/3082/-38.290163192243085/3083/-38.290163192243085/3091/84.72610404264823/3092/84.72610404264823/3099/105.94539590092286/3100/111.80140948635182/3108/168.11134196037204/3109/168.11134196037204/3116/-97.49585763972982/3117/-96.34019174590992/3118/-96.34019174590992/3125/-14.036243467926496/3126/-2.2906100426385336/3127/0/3130/4.573921259900857/3131/15.642246457208728/3134/15.642246457208728/3135/15.642246457208728/3141/15.642246457208728/3142/15.642246457208728/3149/15.642246457208728/3150/15.642246457208728/3152/15.642246457208728/3153/15.642246457208728/3162/82.23483398157467/3163/82.23483398157467/3164/82.23483398157467/3171/-68.19859051364818/3172/-70.55996517182382/3180/88.15238973400541/3181/90/3189/-106.99082329198615/3190/-108.43494882292202/3191/-108.43494882292202/3198/180/3199/180/3201/180/3202/180/3205/177.87890360333853/3206/177.79740183823418/3209/177.79740183823418/3210/177.79740183823418/3214/177.79740183823418/3215/177.79740183823418/3216/177.79740183823418/3221/175.6012946450045/3222/173.418055344822/3223/173.418055344822/3225/173.418055344822/3226/173.418055344822/",